digraph Tree {
node [shape=box, style="filled, rounded", color="black", fontname="helvetica"] ;
edge [fontname="helvetica"] ;
0 [label="odor_n <= 0.5\ngini = 0.499\nsamples = 6093\nvalue = [3199, 2894]\nclass = 독", fillcolor="#fdf3ec"] ;
1 [label="stalk-root_c <= 0.5\ngini = 0.288\nsamples = 3390\nvalue = [590, 2800]\nclass = 식용", fillcolor="#63b2ea"] ;
0 -> 1 [labeldistance=2.5, labelangle=45, headlabel="True"] ;
2 [label="stalk-surface-below-ring_y <= 0.5\ngini = 0.14\nsamples = 3003\nvalue = [228, 2775]\nclass = 식용", fillcolor="#49a5e7"] ;
1 -> 2 ;
3 [label="odor_l <= 0.5\ngini = 0.05\nsamples = 2848\nvalue = [73, 2775]\nclass = 식용", fillcolor="#3ea0e6"] ;
2 -> 3 ;
4 [label="odor_a <= 0.5\ngini = 0.025\nsamples = 2810\nvalue = [35, 2775]\nclass = 식용", fillcolor="#3b9ee5"] ;
3 -> 4 ;
5 [label="gini = 0.0\nsamples = 2775\nvalue = [0, 2775]\nclass = 식용", fillcolor="#399de5"] ;
4 -> 5 ;
6 [label="gini = 0.0\nsamples = 35\nvalue = [35, 0]\nclass = 독", fillcolor="#e58139"] ;
4 -> 6 ;
7 [label="gini = 0.0\nsamples = 38\nvalue = [38, 0]\nclass = 독", fillcolor="#e58139"] ;
3 -> 7 ;
8 [label="gini = 0.0\nsamples = 155\nvalue = [155, 0]\nclass = 독", fillcolor="#e58139"] ;
2 -> 8 ;
9 [label="stalk-color-below-ring_w <= 0.5\ngini = 0.121\nsamples = 387\nvalue = [362, 25]\nclass = 독", fillcolor="#e78a47"] ;
1 -> 9 ;
10 [label="gini = 0.0\nsamples = 25\nvalue = [0, 25]\nclass = 식용", fillcolor="#399de5"] ;
9 -> 10 ;
11 [label="gini = 0.0\nsamples = 362\nvalue = [362, 0]\nclass = 독", fillcolor="#e58139"] ;
9 -> 11 ;
12 [label="spore-print-color_r <= 0.5\ngini = 0.067\nsamples = 2703\nvalue = [2609, 94]\nclass = 독", fillcolor="#e68640"] ;
0 -> 12 [labeldistance=2.5, labelangle=-45, headlabel="False"] ;
13 [label="stalk-surface-below-ring_y <= 0.5\ngini = 0.029\nsamples = 2648\nvalue = [2609, 39]\nclass = 독", fillcolor="#e5833c"] ;
12 -> 13 ;
14 [label="cap-surface_g <= 0.5\ngini = 0.006\nsamples = 2606\nvalue = [2598, 8]\nclass = 독", fillcolor="#e5813a"] ;
13 -> 14 ;
15 [label="cap-shape_c <= 0.5\ngini = 0.003\nsamples = 2602\nvalue = [2598, 4]\nclass = 독", fillcolor="#e58139"] ;
14 -> 15 ;
16 [label="gill-size_n <= 0.5\ngini = 0.002\nsamples = 2601\nvalue = [2598, 3]\nclass = 독", fillcolor="#e58139"] ;
15 -> 16 ;
17 [label="gini = 0.0\nsamples = 2454\nvalue = [2454, 0]\nclass = 독", fillcolor="#e58139"] ;
16 -> 17 ;
18 [label="bruises_f <= 0.5\ngini = 0.04\nsamples = 147\nvalue = [144, 3]\nclass = 독", fillcolor="#e6843d"] ;
16 -> 18 ;
19 [label="gini = 0.0\nsamples = 3\nvalue = [0, 3]\nclass = 식용", fillcolor="#399de5"] ;
18 -> 19 ;
20 [label="gini = 0.0\nsamples = 144\nvalue = [144, 0]\nclass = 독", fillcolor="#e58139"] ;
18 -> 20 ;
21 [label="gini = 0.0\nsamples = 1\nvalue = [0, 1]\nclass = 식용", fillcolor="#399de5"] ;
15 -> 21 ;
22 [label="gini = 0.0\nsamples = 4\nvalue = [0, 4]\nclass = 식용", fillcolor="#399de5"] ;
14 -> 22 ;
23 [label="gill-size_b <= 0.5\ngini = 0.387\nsamples = 42\nvalue = [11, 31]\nclass = 식용", fillcolor="#7fc0ee"] ;
13 -> 23 ;
24 [label="gini = 0.0\nsamples = 31\nvalue = [0, 31]\nclass = 식용", fillcolor="#399de5"] ;
23 -> 24 ;
25 [label="gini = 0.0\nsamples = 11\nvalue = [11, 0]\nclass = 독", fillcolor="#e58139"] ;
23 -> 25 ;
26 [label="gini = 0.0\nsamples = 55\nvalue = [0, 55]\nclass = 식용", fillcolor="#399de5"] ;
12 -> 26 ;
}